plaintext_letter,dim_0,dim_1,dim_2,dim_3,dim_4,dim_5,dim_6,dim_7,dim_8,dim_9,dim_10,dim_11,dim_12,dim_13,dim_14,dim_15,dim_16,dim_17,dim_18,dim_19
a,2.0755808069723916,-1.0629068146645777,0.0988972534733726,-0.6436371063999223,-1.0015036168883147,1.5903752582319262,0.8287785075501187,-0.528878182434155,-0.549574523181966,-1.0501046891713266,0.6439540673473848,0.5444392999865739,0.4416861845854152,0.05960216638274096,-0.8498989623649168,-0.08191016817202601,-0.2509535028981882,-0.2776874587845674,-0.11793821392962923,-0.16447425358256043
b,2.4693676326206666,1.1995643681984063,-0.7192282755756414,0.599485050016934,-1.7308778513410783,1.4476583773546507,0.12839895872267407,-0.8020097281091204,1.2340551927842058,0.24346130919308523,0.17424972646905784,-0.05082297736712035,-0.5473065026343086,-0.7206389724246325,0.3621455816549644,-0.4478669630416921,0.05669916310474442,0.14247588634093655,-0.029091182418251166,0.11015801057002049
c,1.4805944756654625,1.413699981777721,-0.5998157400678192,0.6729624141081436,0.3023755888356961,-0.2986899761588018,0.4316018572619952,1.09537593500646,0.9841909077701064,-0.5150824223061217,0.2796858837075788,-0.8553171701996691,1.1574784292060947,0.8725002281555366,-0.23734047825000154,0.13208792109999232,-0.47347163260976854,-0.13696743789848698,-0.22129572791000846,0.062200654386888876
d,1.2959326552495196,-0.021969323729321994,0.06056064241404815,-0.6179629167100084,-0.631675357480712,0.9285549127085561,0.7642612574930359,-0.5678741872277195,-0.151695216705414,-0.22959060937258136,0.14112498148258865,0.26772009037079453,-0.5775591095326051,1.006434534777326,0.0159671406389511,0.28544358525884084,0.3832414212270468,0.30874809603107417,-0.10777384254437451,0.0647741150568482
e,1.8678980395017097,-1.6910905031710706,1.9119673014291736,1.7270200146054089,0.8079574947807376,0.3745402726378845,0.021521238005652168,1.1062352190070697,-0.3849551043396878,-0.32711129465762345,0.6868374452628808,-0.22436489519697536,-0.5011308037213208,-0.2932168486826962,-0.1001678463590798,-0.6068740410271826,-0.18261279295557362,-0.06950717391083495,-0.012423909210266895,0.2975144262835888
f,0.7824259030108582,0.309554691575731,-0.012946610892286974,0.03154611921356432,0.48405047914785615,-0.3395190888550893,0.4038680024240277,-0.35430949393407485,-0.0476073571922529,1.782364696434074,0.39678057344969897,1.060599208177123,0.40783819962513806,-0.04831458845475711,-0.18943490860325463,0.1744865201212441,-0.3352322774966605,0.38386359951217597,-0.6594577776943695,-0.051171938034010926
g,0.802375390392804,0.2584425205668743,0.16556457429346136,-0.12167625787854601,0.4466968055730441,0.2037874169646453,1.0145567460050795,-0.19677699309852903,-0.2812771987240895,-0.2836148114518529,0.036440132753758375,0.21041926829484847,0.004309527441847434,0.8938503640799597,0.8061561728750868,0.7301565299628162,0.457563581561943,-0.03564764206393921,0.3494219945272185,0.18855232630920285
h,0.7401260324747475,-0.24590902751199287,0.30171407347067497,-0.7909788056656507,0.5524297577132691,0.2422952801475652,0.5413464487705839,-0.4589462150721222,-0.03712713858212951,0.002221635653565541,-1.477547882981671,-0.5638319017892465,0.8309752727103513,-0.4339920194878009,-0.47452796430182564,-0.7744180266214633,0.6917182111098121,0.1975585694451267,0.06692482357900685,-0.013486247041421331
i,2.070742164456674,-2.3811203444108973,0.06230184142570234,0.05963967604641681,1.7897627961729068,0.8420862059584032,0.9651432543009878,0.7248112040449971,0.7813206676529987,0.40459820331438273,-0.5752722557535522,-0.1421363825642942,-0.4350325797368223,0.0036899359351147167,0.3619118626124827,0.2514723774864102,-0.11484898144880615,0.4193756857330319,-2.2842917388315544e-05,-0.3161103610850703
j,1.6818481082161896,-0.026394862196116954,-0.3427749128010949,0.3271293548963327,-1.5655640340475103,-2.0283744918761544,0.8062114536978043,1.049106277463116,-0.5883215724462787,-0.8430055755163584,-0.7437774948716936,0.5555247363368988,-0.3589228766734851,-0.05230099246867211,0.581352788000593,-0.3837118916033122,0.13142582212150342,0.02223133083545056,-0.49114405719187,-0.12102431688581373
k,1.4642903161880632,-0.6346224314457649,-0.5029596868916084,-0.16886558620889125,-0.07244287397789567,0.1924509289939542,0.4861973610601329,-0.9951342322073552,-1.3243020388503959,-0.12447413174317803,-0.15498808062621955,-1.0675426758153532,0.8325604530529099,-0.6822203308958776,0.7302179545927544,0.4659887344841448,-0.5218393980227524,0.12157730191156423,-0.15958751692113768,0.1027108704709916
l,2.302277379064365,0.6952524943183135,-0.13134136475619418,-0.11772424247851994,-1.1744875852587604,-0.15032445650873794,-0.1595103359175142,0.5092724547827617,0.03666520364408052,1.0616927744769749,-0.057689563792552606,-0.903800830523321,-0.4756212716566541,-0.17080433409047593,0.17875010973764482,0.33984214210915864,-0.26363115031275736,-0.3930111939712763,0.3689396490050563,-0.20989864115601148
m,1.569867883287088,0.8895326416974895,0.6199305224089524,-0.27887921922415043,-0.004123213973789624,-0.25424799363338,-0.43003303011708643,0.2157595897683022,0.13534546332197006,-0.5014240709522054,-0.10830108572161137,1.169097434832918,0.6713541966022727,-0.08032714902761921,0.2706651787854595,-0.27445347962853506,-0.5801293017131085,0.4033959571407386,0.769280552156661,-0.2601207766074605
n,1.2370490547319108,0.743007888214744,0.04370136771534833,0.40565897181136273,0.29427106038976164,-1.174852120631059,1.4139956938768325,0.2766825142814552,0.3945093171765376,-0.241742579447905,0.159782060250238,0.3247614636465609,-0.06572724089316305,-1.1540585672314874,-0.8358710163452507,1.0386094416407798,0.40606276027088806,-0.14436426757253587,0.21941488342004037,0.0834263404738952
o,1.463976373719014,-0.22560626851448445,-0.035048886897437494,-0.13807253667700187,0.015944600634665688,0.8236090674050456,0.0033100410017242537,0.700546433073302,-0.31086535494825174,1.1140229327774682,-0.8162412696986924,0.946031621609831,0.5618340652891056,0.15997728323677113,0.22767636283609197,-0.16410009962490946,0.10216456706758319,-0.9974070680285183,0.0778874381807921,0.2506127819363237
p,1.8039484865799393,-0.4347400292927285,2.1260127782824547,2.296535163613228,-0.5875692834478163,-0.5613288882439,-1.3004704976290606,-1.4910407370965082,0.22510611666917335,0.011147802626508791,-0.6336815019117445,-0.002871004891326994,0.34685928455361587,0.4294554471632988,-0.13826413498958445,0.526163793904022,0.2335745714863728,-0.03359017736874454,-0.10644875810811238,-0.1232327942056644
q,2.117540762434764,2.3544968943335824,-1.709070620544847,1.1029846185754686,1.4661720278721944,1.0207415498972658,-1.3048117122659209,0.5068562467015898,-1.4257463028585213,-0.3464100926597225,-0.2759676508139101,0.1701544459262692,-0.3948703985811006,-0.08793093985971391,-0.26067521702985325,0.15433389915157128,0.24130798899425335,0.2207056201586994,-0.08887646214739187,-0.07319382601066297
r,1.0548703355752813,0.9439818557417071,0.16035719256028744,-0.11463365755484294,0.18653599963831424,-0.29310298711703603,0.050900681777644875,-0.15402235148781357,0.4384399743271455,0.021564706532384997,-0.1702179673657292,0.21269938111641565,0.17640231788045901,-0.02719070768713504,0.028592887819390553,-0.16853914071914416,-0.15359107294926772,0.5961884588605417,0.10475321797382217,0.5579540175816766
s,1.6924968506602462,0.20135306979621623,-0.6834218036492146,-0.7020067544807013,0.5682093372631658,0.08983893630065053,-0.7422886910446161,0.12416844242056359,1.3685438035333188,-0.4721795952829706,-0.2185625667245421,-0.13644475315468996,0.026100166862964777,0.22110386820837233,-0.06543697190769149,-0.020712140739989403,0.2511028608392762,-0.2162186221115434,-0.31617405559803113,-0.06840225031845398
t,0.6894311582885962,0.42500246415215803,0.028318337921851476,0.46675781196784283,0.28881806478047195,-0.34250412924992624,0.36347995152399976,-0.06478239675812544,-0.12576949065330667,0.17323794581050123,1.0776903986290227,-0.24841340765338293,0.5651520886088286,0.0760297407802894,0.5128922275939057,-0.6168241931628815,0.6599739927553026,-0.08216248825908916,0.026579521103995578,-0.1670657311943327
u,2.709560696574612,-2.5876954859411243,-1.8208539730568405,-1.0065776403173654,0.6447246320618,-1.5251280611540958,-1.3619815874646328,-0.8582628697933993,0.2067626297900162,-0.2325399773452326,0.5587206036389603,0.24840493550925402,-0.08840931856235894,-0.04986993549766596,0.022265716316900865,-0.01211405850728954,0.04479824723359864,-0.17515499158892717,0.11762643431130547,0.1518121460602987
v,1.0154318465219654,1.2533618516355958,0.7886259323630032,-0.6287185907283885,0.7374112500918435,-0.7348363518476768,0.5061046661301347,-0.7780755494636256,0.025509015100760903,-0.17739649712550942,-0.2802167571042426,-0.04031614282430281,-0.4502464584023947,0.19725369063929973,0.10422379814474618,-0.4028990005001258,-0.3670837265384069,-0.04141703238589901,-0.056938121414787726,0.05587394183636895
w,0.7868962068071415,0.6298481088019605,0.036243269283384755,0.3543589689301396,0.5194349203108051,-0.4785308925509946,0.4459726558935883,-0.3323719301231864,-0.18408076815640792,0.5810657461572656,1.169584047549852,-0.07181271202298768,0.37500638550038307,-0.06047208519636475,0.1713391490694461,-0.40502497400725923,0.5385213241595548,0.030840594792045924,0.12310204715243887,-0.14670615281687166
x,1.2843307480073878,0.8418924095237711,2.3780832364752795,-2.5458916546009625,-0.13681298565429031,0.3254620528916627,-1.2458676481020838,0.9865602240693292,-0.08732975636488335,-0.15181237270810696,0.44535145234023904,-0.15026769378122284,0.15205336402847452,-0.45284286019705977,0.2974161567878286,0.4467685388624771,0.3047771177913028,0.11740425054777902,-0.3059442628675873,0.010132498020058748
y,1.7357902056410124,-0.6350438957508097,-0.1547814486409583,-0.6197815012488835,-1.2804905864879286,-0.6946199070825778,-0.11853423880130093,0.6963697947999195,-0.7202276820777894,0.977386099851059,-0.01966974971894311,-0.6257654330529943,-0.1261156777744573,0.7623818389309469,-0.8805421584072602,-0.17868378422634035,0.09292379987085399,0.4888514555569429,0.2620107572060861,0.06060878439573613
z,1.1244582076629401,1.6204146295532675,0.9284634917955017,-0.8745521698688067,1.34844625468937,-0.6649178401362331,0.6017412943404742,-1.130937102173755,-0.2978185693258591,0.06757743174513259,-0.06866658503410074,-0.30160164656713695,-0.8279352962472355,0.2627879659841435,-0.28291908969765284,-0.35562895487373714,-0.3728127096844515,-0.49308387943854476,-0.020134595051382684,-0.07613989970262741
