plaintext_letter,dim_0,dim_1,dim_2,dim_3,dim_4,dim_5,dim_6,dim_7,dim_8,dim_9,dim_10,dim_11,dim_12,dim_13,dim_14,dim_15,dim_16,dim_17,dim_18,dim_19
a,1.24423128469159,-0.6535365432246135,0.8007441073488959,0.5394569655252861,-0.9101744469923079,-0.5552018557002228,-0.9959511286927386,0.3744260717242302,0.6737253825482777,-0.27608632632185964,0.8082382601294997,-0.8686650497403222,0.26296182341688046,-0.13234422523557587,0.47115995060151816,0.3108114348288669,0.13203268786872563,-0.07117749592960655,0.14319647922694068,0.06429375280148722
b,3.1378911420194417,0.16161610676375057,-1.0075955631007754,-2.7041277316645247,-1.6949968458117286,-1.2570212381761166,0.398738800998336,-0.19618441945082923,0.32089005176089386,0.5404461113279493,-0.05709342180498074,0.33597457483162985,-0.3035143222018247,-0.519207630081783,-0.1450347355720594,-0.08196236348249504,0.0337489282092249,0.011189607376490983,-0.03308209676601177,-0.02336700807892279
c,0.9420243818916406,0.7263554440669713,1.1905237834925415,-0.5155059643106946,0.2889442954085321,0.8202690460226748,0.11326110913585061,-0.3465801625919973,-0.18947469133921596,-0.18963113462350975,-0.022119608781452995,0.04390773853390743,-0.5770899349906188,0.17450659626245935,-0.09190557946576212,-0.27829489552012154,0.597708214378038,0.09677185624474792,-0.05013060924846808,-0.13205054819999162
d,0.7220689148876479,-0.027003760726721882,0.4033607169272686,-0.36243017709747904,-0.10552362638911109,-0.3480843911498939,0.2875874221941316,0.9995064828390302,-0.23658134882347034,0.5040631626102601,1.0905218230880114,0.048095215847311655,-0.24371387968184197,0.04898854131941001,-0.02993731702920954,-0.25667232730547396,0.12110020889608786,-0.23162341545444323,-0.009883031396892575,0.15067620227618442
e,2.4439317775360507,-1.773858697956609,1.3768199709734292,-0.023283481843801242,0.15196783095152797,0.39023597103902885,-1.4364511983780637,-0.571039665156403,0.6537964373906572,0.8350267955108563,-0.35182354119867343,-0.08465892449251533,-0.07005715955078896,-0.23924304503745228,0.44841183177511645,0.08745065524098665,0.08765522916823024,-0.022673596706891046,0.07593827510341135,-0.17816217028858353
f,1.7293351883710848,-0.795895138649107,-0.7036069924390582,0.24792103464176035,1.1747231319863023,0.5457459164014228,1.2248890962731978,0.3101524759251898,0.5923969728732531,-0.8720185219498546,0.5055274533583277,0.0861780535163,0.3872807764899027,-0.7149106592973208,-0.050971144627754775,0.14963528779568339,0.06857830536750635,-0.47210292600447995,-0.0029680356513886947,-0.2714088667962172
g,0.4306313739227446,0.1459258806123766,0.5987298660346896,-0.03233780635693953,-0.01935541011611909,-0.10021205416330024,0.10915534557941894,1.3769726866279897,-0.024398925593664807,-0.20835224356155235,0.9133512134148954,-0.31899775199441627,-0.338538191205053,0.2697708352474779,-0.28536500140270055,-0.10257119235315657,0.3873638182294597,0.03537056845663919,-0.14738237528061146,-0.0887499069765012
h,0.7223363865419818,0.1150460814636242,1.1446640177597462,0.7196390695374311,0.1764198459054181,-1.2292870333846027,0.8321210694359693,-0.2010706725503197,-0.6442699319342526,-0.5545052228099413,-0.23285489343359883,1.1679203581178446,-0.3431427937745716,-0.38014857618122144,0.5208868044443515,0.6063502132641927,0.12403595073567096,0.0443457238587643,-0.08808237744544584,0.12937826179199663
i,0.8307113430594921,-0.3708200243140439,1.511775864864059,0.13915160330003443,0.08980176702268676,-0.048767714712064945,-0.71041340493106,0.4781355684124128,-0.5264895667366261,-0.5654843624211358,0.42595767825730024,-0.13211445382299955,-0.5593381060085049,-0.7337418838850841,-0.5384127228968948,-0.00940987748493543,-0.7687403701895098,0.19712514110420418,0.034252682003879244,-0.09261144542823986
j,2.98883814557395,1.8080440063055299,-0.919523263399873,2.1932934894818414,-0.6469407634867975,1.1455730935361914,0.11481954973822157,0.10227048742906762,0.17857693265584493,1.2432494332551287,0.2675328031990528,0.5420638122984814,-0.5133146607269001,0.2046902211990968,-0.18751535206104103,0.3209152595139961,-0.13096616143871787,-0.09048001962955826,0.05358651261008733,-0.10268098166717063
k,0.6211990693059489,0.22742893079189153,0.750747509361437,0.02873036949376252,0.07152796198114207,-0.4981968935576573,0.2728028965349212,0.6368774098260505,-0.7777864023645849,0.23791521111066796,0.6570587637471599,-0.11099119623982846,0.10175307376873552,0.3934877050551724,0.6476611615162067,0.11078180881641192,-0.1235882535358527,0.30346058922787283,-0.1437427371926864,-0.0462109362267569
l,2.398491720390308,1.0755959566992908,-0.7591632072986061,0.0026519399388345894,-1.442761471631376,0.12596735565712971,-0.03801330771331291,-0.25336963205119367,-0.02938538704029168,-1.0246837475412116,-0.14640350270952374,-0.5152639025333112,0.3776120650808278,0.4619688438827326,0.2079983582744895,0.24756281336342145,-0.15192006333733626,-0.0373465025675537,-0.4205540155911852,-0.10985803180368717
m,1.0330052390192261,0.6428700199657996,0.39764110321334467,-0.5521225797570097,-0.37334045733708443,0.21816907889499634,0.7659720784857829,0.36409349782702116,0.45326445913432006,-0.36631794071899676,0.13277089405728681,0.06036884607944846,0.4085715918079767,0.3315561902234464,-0.20729646961792889,0.3798468551398444,0.021005586183382066,0.25446660191192827,0.7138171892006218,0.16795959051975978
n,0.7117461981978329,0.16143174796455795,1.0041778552520373,-0.06109161796819993,-0.20346417136498715,0.6962779777370995,0.5510527326776168,1.9006049156335838,0.5935249457447819,-0.058469976470762436,-1.7720656709040608,-0.48811055637071415,-0.29155741512298766,-0.12628253682687543,0.043391554562870714,0.0863150422074431,-0.02694606658858536,0.0033299545284444054,-0.13165406358944262,0.13240251201487033
o,1.597561724397041,-0.2985863189088347,0.27286161378508084,0.04080836480759701,0.3608137517869169,-1.1589083789634587,-1.1964510427482777,1.1362167992838912,-0.9795006295409232,0.19487566609204482,-0.6942452366834013,0.7521228033538996,0.7243098945039671,0.3540254615499569,-0.2539648189042598,-0.07321638704551585,0.1117277123625305,-0.30794836570330986,0.12581844234887363,-0.16322972007782258
p,1.3792732039077638,0.5204914810229178,1.2188817412545292,-0.2960477818142582,0.7374766687752387,0.8109611656207424,-0.10553808026931145,-0.2736654321313943,-0.1364054621401025,0.696055838004015,0.2600494626441072,-0.010806450125771222,0.9537013163023753,-0.5705774479104334,-0.5108908968618562,0.32155574082434174,0.2717737719995164,0.2746197926567718,-0.3408105541253934,0.2651575282765186
q,2.748848765437103,3.2383862668668493,-1.3660337574112797,-0.07467320346934775,1.9670885330887085,-0.7605778628718186,-1.0250505394760394,-0.11192593853679036,0.10749521862908326,-0.48316949218539607,-0.120481085168343,-0.4128448363048367,-0.1913072186027945,-0.17006715176099357,0.17117958616081735,-0.2138593371058432,-0.015602822308506513,0.0032803599798524826,0.0756871269408788,0.22032932145526865
r,1.10238083477535,0.6514240820626505,0.4856669201886373,-0.23099153731099684,0.11955700311362351,-0.12901995862854915,0.9005274119563568,0.030524777370225274,0.047375629269419885,0.5532223932767202,0.04139573775794905,-0.043706849865220714,0.7904362604695834,0.28111227555101237,-0.023688306752715077,-0.307555140455011,-0.46385687854904223,0.09040988783235893,-0.0630790677985595,-0.1791019974716111
s,1.1748227596256755,0.37683659682022597,0.16838747666080264,0.22980751985503545,0.6348800365094011,-0.26383473380458866,0.5219894686158381,-0.033103545127973075,0.00415806126118211,-0.14689990688663745,-0.24689430859753128,-0.13504042701407734,0.030228129481939127,-0.16759083370683592,0.19885727545374868,-0.21487670060932348,0.20887844098248579,0.496398157580363,0.14933583770955933,-0.48888658433750304
t,1.072828288745032,0.2885760673237472,1.305583123647942,-1.376978261005019,-0.052218473826878394,1.3088664665055771,-0.8060607391014915,-0.4593218715454576,0.040738839395169923,-1.083532656358244,0.15512044959049417,0.7208338827939912,-0.13530918990148902,0.6437986333484295,-0.2554333056391164,0.19716037832648375,-0.06686016369763248,-0.08573496765541247,-0.016442604917387044,-0.05805719541093905
u,3.8075474359319084,-3.6028508761054043,-1.6863830315505717,-0.08058768680022313,1.1339329494280774,0.36802885232068916,0.4591662923851748,-0.10419739969708192,-0.5323722489095464,-0.049331799009194585,-0.059685977460761215,-0.24009926443703056,-0.2766740696559522,0.5269679168100192,-0.04509538730689716,0.010367191110445201,-0.08477188823709478,0.1688104288430396,-0.02303616826027498,0.21511178055463226
v,1.0878226856761946,0.8091279862958664,1.6376159286492151,-0.658672006774844,-0.1123965797368664,0.9358418769424349,0.8161966730659076,-0.6778014798475097,-1.4386657754851266,0.32900452197235647,-0.17985356351128926,-0.8111796335073703,-0.038103164361540334,-0.14478695284685955,0.388494103034192,-0.14352529110472273,-0.08612484283655292,-0.4099444810008237,0.2171208599606749,0.06034877387440879
w,0.5152915595386762,0.0441466333015005,0.5895562504085098,-0.28916252764864053,0.23254723227987764,0.956111305016076,0.00929432399504212,0.46182602276274043,0.9276535128485591,-0.12460041528919295,0.33945616024399605,1.0831764251166829,0.19120803189716307,-0.01344574181302931,0.7006149426045989,-0.6506954937481486,-0.24167988226047726,0.03657124888549977,-0.058868582755185056,0.18933550806675453
x,1.3841346535099732,-0.18311004939171266,2.401254433941104,1.0688477263948724,0.38491699189522016,-1.7841333181594436,0.7739476076075286,-0.9753862099636107,1.0216821749932532,-0.008539132404669768,-0.14100768141269063,-0.20628149894246273,-0.14974142236708152,0.5397827467963837,-0.4331754303447279,-0.23427989796928775,-0.07163469589555711,-0.15777032517721726,-0.08442975877697623,0.09156851316302307
y,1.7516049839974548,-0.5330560554844737,-0.13843573604191117,1.8871359370538903,-1.787861865246371,0.27376214691188205,-0.10025603559855689,-0.250923924252738,-0.5818286032092497,-0.8040824044037266,-0.18051262799524537,0.16397357385210776,0.31434746656813206,-0.4211748736303964,-0.171428366351142,-0.6842819177795313,0.24328820876914004,0.12140038588307048,0.09351714168277325,0.16054913487397188
