plaintext_letter,dim_0,dim_1,dim_2,dim_3,dim_4,dim_5,dim_6,dim_7,dim_8,dim_9,dim_10,dim_11,dim_12,dim_13,dim_14,dim_15,dim_16,dim_17,dim_18,dim_19
a,1.2355080123609763,-0.5109900013795358,-0.6203088309345903,-0.1631256914623073,0.8685718027366407,-0.511266775129426,-0.21629428524282918,0.25541970533759095,0.5846940660630902,0.28331750795774946,0.1564934944871946,-0.012428784052434888,-0.18253072957879993,-0.29585563396362524,-0.18095421501342795,0.3603200394718932,-0.948333680018402,0.2546741692505912,0.7999414313374783,0.08490373889536364
b,2.8688460351038696,0.37814395055211847,0.11936835712730692,0.6080537281551869,-1.5833061341351429,-1.3094450431669211,-0.43584565405558706,-1.8456750055798266,-0.9365840347345045,-0.8274183788793351,-0.0015709990690194661,0.2693141539687494,0.3962748074016647,-0.017252541595595906,-0.11679649342004605,0.204727450722922,-0.07615259347970411,-0.09429144732177511,0.13964499885737555,0.22946477039802562
c,1.7578727832439929,1.4064549459335725,-0.6064828920371033,-1.5831926405013808,-2.048011816836183,0.9932962212976576,-0.785588383771148,0.9898107745969124,0.45886490214414977,0.2789670133225675,0.14228929754612388,-0.3038406809273059,0.9000123884454615,-0.32653233336654686,0.160144210873683,0.12638471248972255,-0.15338138726916212,-0.01727657522467073,-0.0026469753052376713,-0.2670638044606142
d,0.9442089402239442,-0.3461138108861171,0.28022203049923866,0.035231478050735156,-0.6068701656363102,-0.3794843979869424,0.29181569777107175,-0.8148413302344975,0.30075948409133896,0.10662134729803012,0.36276133754301604,1.0660137545274038,0.23914167104369952,0.10721457244560244,-0.27651272367356605,-0.0310548640988461,0.3183043944478309,0.24967789975060187,0.23603319116259763,-0.3703888991412807
e,2.2874348133152083,-1.0547218733036248,-2.280863300328397,-1.740998235527554,-0.32125689731636686,0.1421687728334952,0.5789878917111645,0.7984164169726425,0.014266821872086168,-0.5519617475054476,-0.6615771056595426,0.1686280022363132,0.008719066948711949,0.8332930534875834,-0.06932484164740983,-0.5192140747997165,0.044262576510005605,-0.3388261192090185,0.1393055468068799,0.22899102536002988
f,0.7869694304692986,0.28553048125792424,0.7096533787196038,-0.027478175989651746,-0.10559670448250646,-0.4350244128547965,1.2589815206380042,0.2875901343469067,0.5001030181928097,-0.4448194343158856,0.013117492150518304,-0.6401817563436893,-0.18076401888007565,-0.536135633206164,0.0707732086666219,0.895393921562338,0.02687842612448987,-0.19531999934579558,-0.27321773939298694,0.1241491777247669
g,0.883595659052267,-0.8402612388166822,0.3141192538136388,1.0283194789894328,-0.4934384958235575,0.5663005089021926,-0.1416779920865786,0.31986516140183757,1.0653273970041592,0.6364009716862616,0.7496254431042094,0.41747290507762486,-0.3977435723031035,-0.2118560943117616,-0.7579018410524025,-0.3482821230414441,0.3435344108585278,-0.04998651875873886,-0.03689803211041427,0.2941534328062362
h,0.44292865185427166,0.09986547563301502,0.6196682770204879,-0.3591833999484367,-0.02900843635176234,0.03283554069947801,0.2595208917540978,-0.2707963207140408,0.3232490852466417,0.3023567406740718,0.7942282584885805,-0.0063961510399128335,-0.18501540513038195,1.2052822844815891,1.0899087459690073,0.5406161473270479,0.0835474043995692,0.16365759523633824,0.05706506079907858,0.10144153422757377
i,1.1411426889128102,-0.8021010664280056,-0.7162057097758772,-0.38934102963494116,-0.27867124788742864,-0.4469824311904784,-0.19231988439767755,-0.03887043044550728,0.9247341835909257,-0.278411644689214,1.0465957378508692,0.8168721171756068,-0.13043750401436627,-0.053054934345276875,0.06855219927985062,0.19648115032239158,-0.3312320454246112,-0.5566000845373725,-0.38719078307028676,-0.02591466861635795
j,3.0223680852618715,1.8811846935531302,0.45762861640648916,0.9785969915681979,1.6383869949006566,-0.7701989715633594,0.4875622067432487,1.5928131496560838,-0.8525917642882289,0.6212059553376651,0.20421282208023706,0.7166576469510565,0.7429806083959067,0.14581105317952434,-0.057047242501133195,0.10447597244628318,0.14806290112081413,-0.06920646230674002,-0.01822098605750547,0.0951992723076047
k,1.032642997645239,-0.26568788260078624,0.6365232198730012,-1.1853585722401596,1.1034690621757495,0.4696111913601295,-0.6305710553572816,-0.673536892102613,0.8795521331753675,-0.18905044623317402,-0.1670139146152666,-0.15190962724486434,1.1720560261500959,-0.13257355452007927,-0.19985081735760737,0.1369375503784853,0.14899469366412202,0.42757186632505345,-0.24130820627585253,0.31048329626482923
l,1.9664560490780703,0.6245550040055249,0.17749734203345896,-0.5275857768727087,-0.10886109771760924,-1.261267256160168,-1.5637382542282048,0.22638193337665818,-0.25049182508551443,0.9226108366834098,-0.4088684504707045,-0.041112592664845814,-0.5658885958746901,-0.13444365612459414,0.07960705032873376,0.18968284062931948,0.14935620115946874,-0.3414194405436814,-0.09159276916135169,-0.11529700680834899
m,1.4922782930703766,1.0193806223831652,1.0842736144162393,-0.3528201991141124,-0.42347576533789016,-0.7874692585663108,0.19504914039428825,-0.06007955812024823,0.17565028114254785,0.23150302914745036,-0.20227538271437873,-0.6245100659491445,-0.30303155913228935,-0.19905422459028738,-0.13834015542601136,-0.3209223150136586,-0.0822791846947963,-0.2811010023803673,-0.01994646222947317,0.17062895700394898
n,0.9953196757479302,0.9651825617369767,0.33669666387244335,0.4368288183743254,0.35796894310056954,-0.07558531986200706,0.26263405968803083,0.15410803273106116,1.256703347240023,-0.6663648847229285,-1.243308838296321,1.0393272409660128,-0.3294459744660514,-0.4050447959900617,0.72510778246193,-0.11478410168556108,0.0002188452518366966,0.12131095383145067,-0.06456625343672365,-0.03569021137329883
o,2.74759992239771,-1.0733347658436396,-2.5033376119045503,0.027924748279502896,0.08656768404735558,-0.5983338333757086,1.915244112235152,-0.8669226528876242,0.060039847791606496,1.0389927813727708,-0.030037816816209397,-0.4820839698425739,0.01361719810109029,-0.43889288216241223,0.2241003129957318,-0.04547393282176506,0.22317372974508182,0.2903725680752761,-0.14731410437861514,-0.1052801317293985
p,2.1571793696808403,1.1932043913188917,-0.14282470401699227,-1.166492442100496,-0.6237566969105958,1.763616259848228,0.2107933266993509,0.48727248622351177,-0.9855324772497953,-0.4327912139344006,0.386894302154843,0.38735013163843846,-0.9645782195495576,-0.349170927333599,-0.12632485372286575,0.2788991344719472,0.1259200303545249,0.5721384896018347,-0.025061470018555528,0.14252752117350673
q,2.2972655015389236,2.8567778194989737,-1.597087142079514,2.273427578325703,0.8624269817223397,1.4016141349011897,-0.5829679000765033,-0.9922410917353521,0.43000779024983654,-0.3207119085751616,0.23098639859729675,-0.498204884344346,-0.1570954873115624,0.20729777729153798,0.062123037376213726,-0.2948210683345322,-0.13048183031175647,-0.13203641663098864,-0.035052955404165205,-0.08352260765505122
r,0.9407073690405907,0.010185467995825976,1.0781905853313618,-0.2808944199626644,0.16137184069719276,0.23231588788354898,0.2989137538491771,-0.17993765848736465,0.3755181027428834,-0.05909387645504383,0.1495631413572275,-0.2907461788406038,0.12932305593983548,0.15562291887371318,-0.0114303602440959,-0.2600098987358765,0.24714397386377934,0.12272593245046717,0.29340895224888025,-0.08804228972974817
s,1.0469616020982007,-0.19535028021362988,0.5491126859590096,0.6669636104248052,-0.6379354966310764,0.4320312734525465,-0.4960059004176364,0.250338073487665,0.5972264423198339,0.30624830189397895,-0.04247500579626377,-0.6245920641171838,-0.04962443182861193,0.2616316776837238,0.19397606493986075,0.06256127658996384,0.403913244578306,-0.20154948342681087,0.33877736793389657,0.10768298061515173
t,0.5659897923769451,0.4206006073212439,-0.31523438595752246,0.12216256000392192,0.17134091117054126,0.05108998374955144,0.21937597132979306,0.0027205880928862806,0.46655781404417684,-0.1407026567103325,-0.7028097664196673,-0.11795400580766703,-0.21370223603028213,0.912881959685827,-1.1374531916017074,0.8512258703609303,0.018998376077772845,0.0536587391419329,-0.1527038333478841,-0.21074275666997608
u,3.8113874272559047,-3.4903816022826546,1.5096764365330868,2.0700607200954,-0.4719372647163304,0.9662991470068636,-0.3320270988607578,0.6396823506050588,-0.3744300639541768,-0.14376149919724376,-0.4254116924966291,-0.182672885513162,0.0740321332893579,0.0703291911451084,0.19921311837984754,0.02346691091276178,-0.2528952419746981,0.11433336267922914,-0.1575685224337758,-0.12192347103803601
v,1.187804216583026,0.778831460127441,1.2621723440393473,-1.0036394667091837,-0.43188240238968784,-0.8374150167954866,-0.49701424266797667,-0.535826704814139,0.3600261158777306,0.7921031852770367,-0.3654901463378473,0.021310636433456837,-0.4694410056084145,0.4088242307984783,-0.05705278297932994,-0.42815453425130895,-0.25464546179242314,0.5298041033112951,-0.26656821963264954,0.04461808619975084
w,0.6983597091171982,0.44776582455824865,0.9285120018717804,-0.21061977937742316,-0.20101192968348866,-0.3367936730918181,0.5670323562136337,0.10961178811318124,0.379083416052526,-0.44696244711357336,-0.113530428259967,-0.07606555717222278,-0.11213453258359568,-0.25360913408253594,-0.026511775741329284,0.12211480533898125,0.6254289458412254,-0.1854255226735515,0.5303689853463687,-0.07427163764492312
x,1.635026140290058,-0.7878646165100837,1.1417248111764116,-1.966133227696235,1.6999642929380079,1.7139479802194368,-0.057762435476884574,-1.3759521727429802,-0.43849160050900493,0.4727705200983195,-0.16180756161123158,0.2447489239093192,-0.13813938941548087,-0.1944015684399916,0.007195019818146413,0.11196242019452032,-0.005967377778721737,-0.5928122772361989,0.07415038750141911,-0.09038336403999744
y,1.7622879117550776,-1.0657397007902836,-0.6931151309755043,-0.8329374783817906,1.5453739661145334,-1.3305970151871447,-1.4583150576363906,0.47124365768156096,0.032139871004079494,-1.0929275544947443,0.6267791968340437,-0.5545152144226356,-0.3258237304793398,-0.1280672034827465,0.02636750418397937,-0.1512290063350201,0.3791895665897712,0.27897911168159795,-0.07874998062588219,-0.17702978180691709
z,1.3195832905887483,0.8199791883962406,2.0495435760433844,-0.6464048916929682,0.09119425681481891,-0.3064328422043027,1.5899467921808517,0.20260671673607575,0.06197881602976322,-0.613493529668205,0.54966307675519,-0.3878901237864152,0.02398096426100661,0.2206663685013069,-0.23412653210146153,-0.6214806519356804,-0.43827965086197695,-0.07399221004765538,-0.09383303210762549,-0.1933471980828718
