plaintext_letter,dim_0,dim_1,dim_2,dim_3,dim_4,dim_5,dim_6,dim_7,dim_8,dim_9,dim_10,dim_11,dim_12,dim_13,dim_14,dim_15,dim_16,dim_17,dim_18,dim_19
a,1.8782073558442387,-0.711267298413275,0.8355852349868444,0.05791500006619056,1.0597294803463357,0.9993425070756162,-0.5209070479241101,-0.672360022105429,-0.02270353207026365,0.3952866199804002,0.04348513758256227,0.27166877465613104,-0.27050456061152556,-0.20148661198589335,-0.583218048709265,0.3548916427677892,0.3759943923806003,0.11124166168341042,-0.20328859311962025,-0.18087674875516638
b,2.2715779972471726,0.1642698156185335,-0.07906522637099876,0.9351937114900488,1.1844825898965265,-1.4783948625655603,-0.9718570822246967,-0.40074278975877725,0.8279984587961303,0.11120428015575451,-0.5064637981045866,0.17725321336851582,-0.38096990284741583,0.17013764626975028,0.4716073147189117,-0.16640258065630315,0.20829698579128214,0.2390463851097681,0.22125393652994305,0.06121860977630845
c,1.1418443364164494,0.10682755779717013,-0.8903107682293312,-0.17830889444441086,-0.3942777104060221,-0.5971970614470851,0.13412264346706795,-0.49443984926532064,0.5692436741417374,-0.8225164987856938,0.007396114682949032,0.5585300407055601,0.0493995546763084,0.1856405518289978,-0.15764887868538185,-0.14658439726926667,-0.30394894647984444,0.2865555304699391,-0.21404677743562647,0.08550090238500153
d,0.8680745870620739,0.10351823879173828,-0.002610300306573574,-0.3571500834781195,0.3625184984575381,-0.33918678311815476,-0.41937365561292234,-0.5846072878195999,0.824500557484538,0.9340215064939261,0.27721484558009946,-0.6831580350588774,0.45738790280314656,0.43193283798814086,0.23884443493831276,0.09349834111787651,0.18968969275527714,0.049604749361062926,-0.2470300379759573,-0.12717325788845843
e,2.312236974720263,-1.6728822771406278,1.3487356596991966,-1.2735025225680412,0.2699556453288127,0.18469877392180556,0.9622905403042251,0.21524577645793067,-0.003954596006386832,0.14523349330637142,-0.34161861512114,0.42719840056070807,-0.12185961955915087,0.6334456617622612,0.042709099941872136,-0.06942137055588544,0.33458643779122926,-0.3759590029292265,0.24345724201998273,0.19832740707336252
f,0.9233896945305191,-0.026070428454743725,-1.114467816674293,0.30463323023751915,0.2025828699847704,-0.5584512234515326,0.25461087158110873,0.008972774470700755,-0.21415932408870994,-0.639514288466224,1.1591831262946461,0.38581854169469315,0.4719837219542996,0.16821856171424907,0.16050134661190385,0.20018525693119346,0.42907587779057765,0.1671714002941431,0.0840023129322138,0.22820414588061877
g,1.1306764433049281,0.8008985325546686,0.4110648706230095,-0.23616527117618907,-0.6491025350838577,-0.24623846958921125,0.6351045930111731,-0.826773816209878,0.912418492867962,0.5652898800218066,0.3470142004844764,-0.30676619014733153,0.6182929062527271,-0.701393554235418,-0.23288520298476392,0.21670027485598445,-0.023676668554219907,-0.010759492226995038,0.37827281071920754,0.07606231525182108
h,1.0771130562288773,-0.44151848218311107,-0.1491003922060454,-0.6511496836381019,-0.8606856803710067,0.1668082049560508,-1.5473073148336407,-1.2078425256381555,-1.1086133906248723,-0.8077063440753103,-0.4701729125907418,-0.41700920400126174,0.2735213760066961,0.07018443953998067,0.019196010665440723,0.3741419428219342,0.05926333302486362,-0.21754213938276562,0.19098742142865371,0.06427829137106605
i,2.2206879722056723,-2.537258382954296,0.5439997422911341,-1.1861811828081648,-1.2848598276908214,-0.8929535090584598,-0.18951199170460148,-0.04933708856602354,-0.17306601808658417,0.23282299624747932,-0.06874784838403898,0.13416131378326962,0.30975859249071264,-0.33709244833563473,0.04473792606628973,-0.5107253253321866,-0.27240473259169345,0.22861951871874825,-0.26133039444434797,-0.057750122341005475
j,1.6503828337065052,0.9101604989650219,-0.6218067375711973,0.08789279206551052,0.6629990040647346,0.2941999288744984,0.6489455315025547,-0.5129303616635986,-0.9643637655575209,0.7456514394031798,-0.04190721275144857,0.1252930674113202,0.2997050728722171,0.7178997376881889,-0.3649990874414015,0.0016585213780597483,-0.6036535678060759,0.24311307430555745,0.1040794311343995,0.07319038085694334
k,1.2164460674174304,0.8238894210991174,-0.43082659794954686,-0.13208745708460437,-0.19590502609557842,-0.2928326559344244,-0.21549279265323978,0.1899364797042684,0.14894928247878103,0.0015615312870666163,0.38601572635228054,-0.1881232307787929,-0.11824798853852278,-0.25743186604552354,-0.664629297203603,-0.5433086321443528,0.4095975303876676,-0.37908588848731245,-0.10180638656218197,0.24047569088365428
l,1.813784071452059,0.5393095046653845,-0.22331710471506572,0.842567578523068,1.4834645570171734,-0.2686174248205846,0.08375079071030517,-0.19768037365357807,-0.22607591955883688,-0.1883044428977844,-0.6776303476935038,-0.33239042246434736,-0.06281212910641838,-0.4141201070153412,-0.27833396906799684,-0.2503866241678259,-0.3208143960894963,-0.22441441702498974,-0.08217456041068329,0.14398369610668343
m,1.8459189442332704,-0.28428902679944457,-0.6476992062364858,-1.2723497635888394,0.6431628090283434,-1.6080869087220235,0.6262224120744324,1.2424014100905978,-0.5408937414115121,-0.1597155444863737,-0.05112460414966321,-0.7793598525321783,-0.24458413563836087,-0.24550325722082753,-0.11964283932301213,0.5578406719342841,0.03732325376551487,0.17132099019109923,0.0502345171213719,-0.13598619220017988
n,1.1554260059878243,0.322182471979684,-0.8155597062698913,-0.46267898276871894,-0.23434972987921623,0.12751426082757783,0.009509884720557905,-0.7082269711565953,-0.930438922972899,0.8062906605930398,0.8426619658294877,0.6623555209110981,-0.7787038371566677,-0.4808963238837699,0.39760070698283145,-0.01239887050468281,-0.01312144934867265,-0.016943013650373807,0.04775499332859531,-0.031121273731631215
o,2.0595264525632935,-0.1911847839893473,1.9852541267424648,0.39126102987516337,0.33262293217856514,0.7336458610795746,-0.33678471787283815,0.24613500130195984,0.3641030028385105,-0.6327545927724055,1.2817567187165408,-0.5775249502275385,-0.27803340339201293,0.21651337415951857,0.1360445394542764,0.06967762409426786,-0.5142704398710638,-0.05927480998269808,-0.042611256954099085,0.04614925861760457
p,1.5881649047444717,0.2526948340596424,0.25912967759688676,0.6917526806750364,0.00018335633197909645,-0.6220644968542653,-0.5487975744920396,0.4672077016596096,0.1849826774056168,-0.40155060734000475,0.2520265318911177,0.7513059101714384,0.10130021020879433,-0.16262180095477496,-0.31166480452297035,0.05447210991270613,-0.29471963777026927,-0.14580590791429154,0.25689358654184324,-0.29276307761074355
q,1.2416465695927916,1.566232089360329,1.6115210457285662,1.6086921604786413,-1.3402612632517146,-1.0282497518249611,-0.11671599471261306,0.672799443688406,-0.5848077736331871,0.5074555552522586,-0.2959518451219335,0.522837321311192,0.2954822953304222,0.13030437596918448,0.056002018552242856,0.32814769095107255,0.1197138674143963,-0.15324226380315534,-0.2070178185865508,0.017766266757279655
r,1.1662103925070297,0.7345228613146357,-0.35508824897584745,0.1766395000713904,-0.04384299882873936,-0.16289360049609128,-0.037891817839590045,0.02383094461503033,-0.3738322378311394,0.1373672355292047,0.08768387186411815,-0.3867127451307977,-0.08521544280642931,-0.0982926279950864,0.3507235958027081,0.14667760997123303,-0.05512297484986593,-0.2099049834908706,-0.421521777973304,0.24517608765655508
s,0.8964039344956999,0.4486319998713428,-0.25806732074003197,0.13337069538963314,-0.6037799736184801,0.23240875401343095,0.039024566859056004,0.26525820857527876,0.015738823758829068,0.27454042496612185,-0.0580087061230786,-0.32839062609689806,-0.08189134744138536,-0.09850447541400639,0.4521181938129974,-0.2852545627135478,-0.21874698487146882,-0.3713950690207093,0.27511216223438734,-0.085157449759021
t,0.5192140716137009,0.40950806485935015,-0.050073764223658834,-0.2706885819805485,-0.48768575689164256,-0.12039574348860738,0.9489212177885763,-0.7027545238739771,0.6607496753546647,-0.5666864076745212,-0.1946371397225385,0.3746959310519193,-0.2814124705681933,0.015729641038980897,-0.01565013292981487,0.39223121854694715,0.03125231857222182,-0.25867125323437923,-0.23528803404185944,-0.0991208685731168
u,2.359291507090975,-2.131413036303979,-1.9996488670798571,2.0673043871168413,-1.2483314443368023,1.1571886763416883,0.11420042538765104,0.5244518329556812,0.48273109900045597,0.2768527614860169,-0.17992940092910997,-0.27460184405033383,-0.16058867275593644,0.11590073294156411,-0.11023317599303933,0.23715643800933459,0.02097280157575444,-0.009933129291262496,0.03430793320192665,0.017515304861557297
v,1.153084783061791,1.1207423853774188,-1.2321161481324747,-0.6794235917680174,-0.078797293579266,-0.11127570179400112,-0.30989545902576043,0.16600391616856275,-0.08569449210207532,-0.08015462851630507,0.3732482060390766,-0.10456152111946479,0.15223215718622224,0.5579639604086609,-0.12218714894753938,-0.35861160437341255,0.1901161164516705,-0.3691819208812857,-0.057763594969910126,-0.38534245393126426
w,0.8260732164996712,0.8736569092414368,-0.4099410469986997,-0.6557570363811063,-0.37320871463477784,-0.0732875401434791,0.6967914835453227,-0.7156069060591586,0.6318372012748169,-0.2401957201469674,-0.39894432930225165,0.0021069890688675875,-0.23396893901125193,0.05005854279635971,0.2120937701949909,0.20412332556015014,-0.23997181554832236,-0.23333620050818007,-0.06462248572661014,-0.06028492723563419
x,1.9444607167036545,1.7458104554778529,0.8407346636068707,0.3610213740639069,-1.1887776809447832,0.656570753225541,0.7106465325609165,-0.2630684602094074,-0.3865782513603237,-0.5158860521854746,-0.25842707873295184,-0.56153321184462,-0.3313311228693825,0.06683763823269327,-0.0037732037978824343,-0.375573545349986,0.4137066757390961,0.5903030451189246,0.08550086365087596,-0.10885192146013174
y,1.7962759723052615,-0.23966231890521653,-0.04910821779499246,0.5311262056346733,1.357006236274928,1.1488967608442437,0.7037543538480622,0.0840887796877568,-0.41234935338509504,-0.4656577798574591,-0.20081554424004086,0.2439649326614721,0.7777539293886978,-0.48454567161411544,0.5426528369811399,-0.16112493931756255,0.18194788612524457,-0.0706771114770079,-0.11395663729925057,-0.16409675035005997
z,1.771231650497797,1.7752251822057392,-0.4395674934126198,-1.9072316221175474,-0.1484223918556618,1.53738920611441,-0.9759322219117874,1.1977109562399195,0.6409468349036544,0.1411996909390698,-0.38364620425677987,0.4589525965429266,0.11647318049081634,-0.1316013806820205,0.09468452124759708,0.17219678062497465,-0.08570220052635748,0.2138374353193769,-0.01177739636008284,0.15728842148698416
