plaintext_letter,dim_0,dim_1,dim_2,dim_3,dim_4,dim_5,dim_6,dim_7,dim_8,dim_9,dim_10,dim_11,dim_12,dim_13,dim_14,dim_15,dim_16,dim_17,dim_18,dim_19
a,1.0136534065141407,0.21123335734422896,0.3790172171517535,-1.0219028732317286,-1.1933411494606572,-0.14157144897866064,0.5116045251324559,0.1978398259585705,1.1688683308405998,0.4305216019086687,0.6915378333767357,0.45192175606687784,-0.2870324188068917,-0.0064574726095264195,-1.0136609818672127,0.28895875174221547,-0.40620928643183807,-0.03668547821670691,0.03935084854015533,0.042415040259649366
b,2.8308858296416917,-0.16350475840302509,-2.713741439648826,0.24974093150165155,0.41417012894389543,2.7981690863163364,0.5592439510564682,-1.2376808326532882,-0.07974951456240391,-0.23919082941810024,-0.4173537036335308,0.320420287201474,-0.04366270035169007,0.19315933844760666,-0.5842168365959179,-0.28295068626574216,0.23536500191362164,-0.2417709798302511,-0.20920797996796914,-0.042748023109899815
c,0.8875979834834616,-0.23637681124360235,-0.1560934611640335,0.8679007048291687,-0.623632979238285,0.018616677901704827,-0.7190677689869514,0.36891053985034405,0.06262489288656943,0.13711387977673148,0.5083376639940325,0.32326573836240097,-0.3520288835254215,-0.13605532377212387,-0.09731337006741661,-0.8238487079007146,0.37701543125466147,0.6280755799366853,0.24985777390760205,-0.006725623151885115
d,0.9403536803113716,0.28804059633912044,0.008522276698024734,0.5701836835044617,-0.3535340247777222,-0.804899230204729,-0.182037993601395,-0.21876222403196977,0.5625825316819989,-0.5067341298784335,-0.30035315838344095,-0.3765862306969597,0.1898587893304983,-0.2649086479031989,-0.24010731622485615,0.15974660847659913,-0.11294407297875089,-0.39327487167865977,0.022624566547793955,-0.064997290653544
e,1.6744063200360966,-0.12326467619136981,0.06575285416974068,-1.8698511346143734,-1.391251592585842,0.48912017602904445,-0.0022253218118742984,0.6110092480144111,0.6053613061720615,0.031730748346860536,0.3216114377356195,0.7734220632024136,0.4936547517931318,0.22855881302489828,0.1219488634366715,0.4467969853162803,0.8423284411124232,-0.13665232093894122,0.36655895968272006,-0.09036892862093872
f,0.5427621907889317,0.15499167517248993,-0.20200221486713651,0.7436792728703376,-0.7993800113162919,0.2923315397736648,-0.579678597266222,0.5088179784063253,-0.7376550200050204,0.5174704840120544,0.5018720733858808,-0.20104029445226884,0.24153133159649906,-0.01949105037453254,-0.29857254597435345,0.011073420207950881,-0.07826133727369292,0.10532465593464363,0.0317629078308788,-0.12598058823146652
g,1.019176709174139,-0.6043115711309581,-0.2133869602624812,0.4509100234947224,-0.26264571818039806,-0.6008936824350056,-0.2887302652496868,-0.7032834197364917,1.1477555014337955,0.29969945723003877,-0.35843951460686346,-0.09232633982839368,0.7688155230895676,0.1488986810202062,-0.27991405639193023,-0.6238375587205096,-0.6498317741804769,0.15348014885422873,0.19904792606072924,-0.05621350416936064
h,0.7695756859844651,-0.31331637204712276,0.6322282966885904,-0.06269563790803484,-0.4946140998265443,0.08796924117507142,-0.11381762545534134,-0.04521715032856276,0.5531838378972119,0.035681853869926304,0.017987338575555248,-1.0353307138389534,-1.2726717580500329,1.3167708982872781,-0.20232346147619087,0.22143952241438392,0.018890242269281838,0.17205817332750623,-0.09404172908528223,-0.03075531924529405
i,2.4329864334727,-0.7200654202849975,1.511540159475227,-2.1757321386092614,-0.6275540695436713,0.09175751021996076,-0.46302937666244265,0.422210569793381,0.06220908704729299,-1.1302479555244032,0.44393408050756644,-0.7454386238464286,0.10430395560010802,-0.3125447938956374,-0.10680811410070777,-0.829368769511585,-0.01770005757456503,-0.2925813539059018,-0.21627037941074345,0.10669920495355008
j,2.9216640012716857,-1.5741345954754216,-2.5428072138099034,0.41502418094290455,1.0400377680621626,-3.0425989845796204,-0.09576762357538576,-0.017068290711261057,0.5561072936149019,0.28729250335368806,0.609475165403497,0.10214373360774989,-0.029222452885839155,0.07539091563324965,0.08842593016735832,0.08228440312414605,0.17055923273018048,-0.28536064357740215,-0.19262073479879604,-0.05616327769558845
k,0.978742138331528,0.11250079153339826,-0.011289060478783535,0.42597944663797127,-0.9733806060403832,-0.35109404443538567,-0.1723106237840707,-0.5280926329525563,0.7444719537535791,-0.7251992150710498,-0.9502552978398776,-0.5024576766211176,0.46512549745490345,-0.47834284900304264,-0.46601296986295204,0.6147007739030877,0.06716290079927516,0.6066556636198337,0.030950850865288447,-0.014882136308359934
l,1.678291804745251,-0.08919297874415477,-1.2060801960052898,0.5389052212652717,-1.1374707136058244,-0.4574908291698915,1.2542347232059574,-0.1792304627715344,-0.38355482287998194,-1.0903304151929731,0.7116667688181314,-0.10790603253918725,-0.04126463560426252,-0.09443577455983175,0.487723053330946,0.0835327727023182,0.22725961726524052,0.5527830872438556,-0.2633342861877096,0.012608224853291487
m,0.8857101931084851,0.06723380212809614,-0.4976325366661554,1.1099611950242982,-1.1750577488299503,0.5654526392600066,0.3888456958714264,-0.6771396865264009,-1.045453453018579,-0.16137576123822364,1.2478451482536015,-0.5682664711145039,0.40857312643537874,0.2087081271177022,0.11925635317009374,0.22505529577019986,-0.5683050468723642,-0.2508009076549461,0.4880344732860762,0.06636698327011493
n,1.5802111799896896,0.2420616416105369,-0.47566655466570673,0.46507343084892255,-0.46821436364299235,1.3604367483598139,-0.6018410996899646,0.4942292767184098,1.3437658366814955,-0.21073284712065618,0.14831055743731286,0.7296687196024152,-0.7893513341370815,-0.46791242101112407,0.9360865797156587,0.1568464753413619,-0.755754310752541,-0.010754606696893005,-0.06673769400615139,-0.0710210899408242
o,1.6030193623275468,-0.8073258751306942,-0.26033444853959353,-1.9260626416102777,-1.432482594138598,-0.4521715141291334,-1.631047163490248,-1.8175520942089236,-1.104865618568575,0.7220634249508446,-0.39398590782505377,0.06883547541176585,-0.15781650377976128,-0.06437431956103239,0.44561091548855747,0.22447324584862594,-0.13844904083437057,0.09608188269358019,-0.12159245012220256,0.0005386146743973527
p,1.5475807394098018,-0.6882859872605966,1.2619940583192966,0.004799840465536453,-1.1188547212671733,0.3319804123378362,2.023642774113659,0.2291044158095326,0.05636267140051445,1.3990477991698917,-0.2156082482948497,-0.5120364887669182,0.2204617380234271,-0.45159763681256326,0.2842176721268571,-0.00517399672307096,0.012115527235261294,-0.04251155372130817,-0.3190378669104029,-0.047027113696483366
q,3.8592147587276324,-4.528247308583579,1.8842361726530577,0.4962594641864569,1.9653978039240898,0.6224471332929581,-0.017327462153866872,0.3355808502002189,-0.5463752718088704,-0.09424111455084341,-0.15848159010047164,0.18843160030178413,-0.05464680547814887,-0.06341015952658037,-0.10352220810891313,0.3162561982546039,-0.06608755547460202,0.16659233250781663,0.25201725802806574,0.008010242597322484
r,0.822227155278284,-0.0647443720031668,0.06343932654039496,0.8166708414114975,-0.8156599213227959,-0.15083610200207231,-0.04134570679728026,0.013775195528888059,-0.13763795237740037,1.041165624773744,-0.08511109289981857,0.04450649709741429,-0.3038107671359269,-0.1553786930463466,-0.16623343686553504,-0.4848324944743792,0.2513783334894922,0.059404732004393154,0.024847346488428342,-0.18052191245513144
s,1.0004054038360592,0.04329396258203947,0.3812383463458133,0.5239502047962297,-0.12647370154593643,-0.20270597263701928,0.3035718986041197,-0.43201220786902866,0.3070936982747682,0.43096792870153444,-0.1481084119651001,0.16368613386746061,-0.2435372997457163,-0.11324550070101948,0.09275360665680885,-0.032075724776739596,0.0928502981071975,-0.011443515233639429,0.04607193547976749,0.696883327415128
t,0.3958491936043971,0.12249768870018261,0.29944926871169136,0.34639008551627987,-0.3926299692896254,0.038732421002612726,-0.18366229805127224,0.16931210828742524,0.3141915686443048,0.04783424065070266,-0.09082279694347856,0.7199859898648354,0.9981698474777091,1.0294924279101736,0.2772124546922982,-0.14631855544987094,-0.07238090238737001,0.15724747218654853,-0.22758319188431078,0.2219863760929468
u,4.007349798856597,3.552001109409451,-1.2572350034405224,-0.7840848074597218,1.5868405329357556,0.5309630453018148,-0.5083814041317744,1.1503105558548474,-0.011109864695012846,0.6208963821850607,-0.14273055146627428,-0.9367248848184621,0.31015012321692115,-0.03264061899938831,0.20402495024655556,0.1359337080776133,-0.023461593771234784,0.19524030675470105,0.13878398688814583,0.0830309616424017
v,0.732146363351991,0.09385715813346629,0.35710409780907204,1.3561288474694926,-0.9463709172777828,-0.16165517463318899,0.05237522232582842,-0.4884898421295932,0.7686469553082116,-0.18415730422678564,-0.7070207732776729,-0.4818640597523747,-0.267533733355344,0.04387081319171056,0.5943154812097405,-0.20375060299592263,0.5614264589113306,-0.43162369320303245,0.43628775063198366,-0.004336202455907809
w,1.1762483869769933,-0.4787495474521521,1.0556640684884797,0.9460465220249672,-0.6074792022076718,0.31299429748335406,-0.29663611673836104,0.6957043863196901,0.05175937875929861,-0.1249355324323981,-0.3450310341707952,-0.07970330668207518,0.6423620715368935,0.5709715793980976,0.3991012696551211,0.0001898970844718664,-0.14816884807600436,-0.11343426510199985,-0.2754311871904815,-0.18868318813677093
x,3.324406354366498,3.7363289012937826,2.874943335070383,0.5038519114473557,0.8702875081069954,-0.9722664822319048,0.47404143738139615,-1.1945089171359462,-0.45185250137212024,-0.30823939842983544,0.13595673291331595,0.8162088457613,-0.23211518069238526,0.09545474068454156,-0.08978214165085474,-0.046768289127394704,-0.0021276537342705534,-0.018975705119104402,-0.010914568423367204,-0.14835444672548592
y,1.283988958904426,0.1379665911492652,-1.2915326261423332,-0.6668782973233613,-1.213237555596859,-1.1687603788425136,0.9342414148601362,1.3567037437338247,-1.315942819111095,-0.4124842366364699,-1.326087416614586,0.5404453287507877,-0.44892327096016865,0.235427044602037,-0.14453918627810805,-0.21110892188592031,-0.4765887541866177,-0.060931468408190706,0.24779133534016778,0.023771567911173568
z,1.1219026578524933,0.5114861693221018,0.369687893029105,2.165699625008313,-1.2711285895535358,0.1180085227298048,-1.4175589446709054,0.9531068368165903,-0.6455002077551802,-0.05558141432247514,-0.031434880398065745,0.1852903384859638,-0.10318469112847956,-0.2660557542076791,-0.545515099134885,0.29938964999767936,0.22786816890739262,-0.3052420567205017,-0.3317838090558687,0.1395366771231844
