plaintext_letter,dim_0,dim_1,dim_2,dim_3,dim_4,dim_5,dim_6,dim_7,dim_8,dim_9,dim_10,dim_11,dim_12,dim_13,dim_14,dim_15,dim_16,dim_17,dim_18,dim_19
a,0.9742601828003652,0.040315040129971724,-0.7227219750192593,-0.8967100999552773,-1.4198456643130382,-0.6809300622108232,0.41807787004435487,-0.6316831483416108,0.45424943216744146,0.31710661249742766,-0.45713296946458293,0.12315687803286104,0.28863328984391073,0.01793215962893696,-0.763263338421408,0.23757924103445935,0.28681828134291426,0.28668871054771766,0.2988837886111634,0.5211148057621411
b,0.9429618146776105,-0.5846343073031879,1.0059458403064845,-1.0567221970977967,0.061495279346079484,-0.14480036385777909,0.3718020641175175,-0.8771672681244459,-1.1727183371779655,0.6475862200360145,-0.0966433681211054,0.204954903179699,1.207249013320574,0.46457116973452006,-0.33748858751970234,-0.12299016298591108,-0.3280800991464645,-0.37320429865104504,0.0580346071939701,-0.16581434817014987
c,2.8775950794265324,1.4124513599832114,1.8562018318382454,-0.7108018297406185,0.7602191966555718,-0.16622276744131942,-2.2430278696181967,1.4733762159286963,-0.2245233913565103,0.7331095315184185,-0.4378975036370001,-0.73774479449701,-0.09779771506116959,-0.17334429836581072,-0.512470717545909,0.15378706425087948,0.1989444269789776,-0.02737400772999188,0.04701781436112616,0.05285369120855235
d,0.7009731961793557,-0.563680498712727,-0.7005464392106029,-0.9260450798961324,0.24301328156423505,0.2486591079391058,0.340568104568314,0.009750511640964684,0.7906464417141422,1.061321439604612,-0.11659530673777911,0.10513898112874766,0.07386308277113034,-0.5769234380296747,0.3520970917989691,-0.5320019104047109,0.4182622923027829,-0.18373087376949152,0.14022868096552604,-0.26762753908812753
e,2.354345784385976,-0.583625932856412,-1.1978339838077554,0.6111935805131731,-1.6826584295179225,-0.7627502559910219,-1.5490096091720968,-1.4874044795546442,-0.11289926861524303,-0.8924431113120412,-0.6943862227450163,-0.649552515838012,0.24776030517755532,-0.007943866929059644,0.25008230723765323,-0.2901285422226451,0.13659845236746238,0.11222985973816123,0.13510122753338055,-0.2622446059433473
f,0.7649163415222368,-0.4346390186673051,0.267242683379612,-1.394644183192356,0.6196854542151343,-1.8235931217985812,-0.2631907401305617,0.9728480175244624,-0.8282142844974127,-0.05155581857244536,0.7432747227542914,0.41447105747438884,0.46220953201377724,-0.03297746083661211,0.8325659966018093,-0.045192408305142096,0.111527150329143,0.3677337233615852,0.32504624275282185,0.05120859238048868
g,0.5087842186205224,-0.3697352640219544,0.2778485423072045,-0.7166161765428697,-0.08060324676175512,-0.6291731938965912,0.23156194313034648,0.1277215601362159,1.3315309398883002,0.09021490041138969,-0.6589357109908124,0.8595631018577402,0.07840920120419982,-0.5734498727201183,-0.19198606706226817,0.09929594995091542,0.33733067701962965,-0.4178819226357672,0.16039576474982234,-0.1928223265587924
h,0.37187669246008287,-0.15782322781779998,0.23337845179838912,-0.009354898418726675,0.478525650209862,-0.47139761273336234,0.5384335663473686,-0.5755633513106906,0.18434432902536235,0.5163627871810281,-0.5587759780825371,-0.3831065173429831,-0.6514065951460357,0.9201948476666293,0.7103342034851775,0.6906333270896912,0.1871122512820985,-0.38738453601846534,0.3774093042062027,0.08062893972794197
i,2.1737029683709626,-1.4847753837229738,-1.616326937355629,-0.5849077858700733,-1.084632256914642,-0.8890240777123676,-0.44831716607672417,0.4884791697485691,1.1565806041747042,0.9889122515735803,0.37430059927322806,-0.06573538613678423,-0.43330054882319935,0.21235209024605,0.3509192592681277,-0.1694974754175614,-0.8542907644260516,0.07368930889135508,-0.15405547987385648,0.013370948753466482
j,1.7878564412434188,-1.4265475398911236,2.9375114980855264,-1.5807524500163688,-0.5414356132489586,1.2663962385337368,0.14278031315658662,0.19499959154932922,0.647068960983472,-1.2702405585181435,0.5067956882390021,-0.29098340208348644,0.11549040200547818,0.17847855005880503,0.492654861364912,-0.33261627322414594,0.19711285768448644,-0.10806532130195277,0.1197357038203035,0.12000371645358887
k,1.3081380760316537,0.2873409227908333,-0.808076607600807,-1.0310365285508907,-0.7266892988529019,-0.9620604211252483,2.1310449353489207,1.6005419781086685,-0.046189744208301506,-0.8726570600428091,-0.12883380159022162,-0.7682094485820757,0.021503013606645683,-0.05314136723273403,-0.42423957190796535,0.19636090699392902,-0.038235508291408274,0.12130067570078981,-0.016224829994945646,-0.23639048479301777
l,1.0034337832449924,-0.23729209224098213,0.025019075467474398,-0.8597080672091847,0.31907098511614895,-0.27309854514182386,0.10482662527712483,-0.874492502914848,0.7045106935632116,0.35850248731731316,1.7638896642155475,-0.7946476973813159,0.23580025099647076,0.07293696835235824,-0.45813551772800065,0.09795179365353705,0.07682242670194953,-0.4880970217835663,-0.08233574184356915,-0.021068878961475537
m,0.7370246288378712,-0.27889560018447274,0.46111578485848875,-0.4673819223310948,1.0671005323063631,-0.5452275592101702,0.4602772760847486,-0.7172444182766357,-0.22743484581415682,0.02633841862572671,-0.24325387199302279,0.007222276531939245,0.08632815043197115,-0.15702665003235386,-0.09642369187464724,-0.06838575349243053,-0.3256483095339547,0.25580686994928387,0.19419742170177776,-0.07458421746274928
n,0.8272291432424692,-0.5059806350303508,0.08885785458020108,-1.2342152856120376,1.2246570936118466,-0.49740705342291985,-0.7123101513440462,0.20900423287548575,1.1475586871801982,-1.0929318991909105,-0.7111737009750441,0.6578687684591612,0.19316058910626027,0.7681878780384037,-0.2858756959573575,-0.10744812133230333,-0.24467957506917123,-0.12844573274349821,-0.25419702443722236,0.09561652764832547
o,1.0235315449547437,-0.6125261863471091,0.6200214973831426,-1.5672703943772444,-1.3342534489968294,-0.7451113113893217,0.04845768002212399,-0.07004832984020574,-1.0571326814147723,0.5069107174056567,-0.01670918801267097,0.4991960270646631,-0.3632657458328683,0.3298764970079784,0.10800485149468415,0.02560958362053341,0.5545446773634297,-0.009598221157792533,-0.6133770080101574,-0.036248371901134856
p,2.8539582928282616,1.7618093636734362,0.7334453819878526,-0.018538535625547817,0.2145295937516928,0.2778097611656008,-0.2104990554070656,-1.0796516734933497,0.6518999890958614,-0.09230370077448383,1.0763255435341554,0.5817475086376314,-0.08188141709658725,-0.09896215971266281,-0.07552789488762855,0.5455126793903252,0.09408020572281153,0.7014293845603233,-0.03216597203784514,-0.12132155336282677
q,1.5316150325521607,-1.1465841413470304,2.590879888092117,-1.2678422420252196,-1.020829344283276,1.567098658524083,0.5366552358271945,-0.14162310968250957,-0.25509604743959285,0.5374368686652535,-0.6326325310393746,0.05260591138603591,-0.29999331721523764,-0.32688604792553677,0.06806137057243944,0.09227830405461727,-0.5156648753279605,0.1889118354016751,0.08846760535784697,0.05802870255169631
r,0.8454439570048734,-0.16789584988926623,0.5785758178466246,-0.302721596974505,0.7665069921089745,-0.28704405945731365,0.4084251295468968,-0.7612518249003933,-0.3508702993282131,0.12344818549713596,-0.393815446602108,-0.1718911995975184,-0.37327511569910043,-0.19532812163167543,-0.08822407219561279,-0.23871937972603272,-0.05885657139105721,-0.024069128567391646,-0.1662789801954675,0.07546529791523568
s,0.5414487352926071,-0.31864665146291404,0.5996790045041532,-0.5177626353208236,0.25372941453477876,0.18684766097076086,-0.03142224037081766,-0.2717651933391176,-0.024520297352774483,-0.17160972473011415,-0.2561226851668572,0.005354598562317429,-0.4339611717372873,0.18050899543225052,-0.13423202885230037,0.4855427615916975,0.08358976837960944,0.0965704052702404,-0.05822937492312085,-0.5819186275452247
t,0.19652744286503096,-0.13487658577277875,-0.06479627937187844,-0.19366615756290195,-0.07499318419764787,-0.3162623275576834,-0.1907432868843733,-0.24396812148538924,0.06230630004187183,-0.3960663434533154,-0.3136977074432872,-0.2083081316501144,0.6939667592424094,-0.9205759100167712,0.6781887331074052,0.8554834128370756,-0.19646687049265413,-0.36590790369360754,-0.3692644974129047,0.20049631731795714
u,3.225389614047646,-2.166859637164814,-4.3304953023086865,-1.5782449649952923,1.1159444266866945,1.945327086268134,-0.08691896667443672,0.1246104108390472,-0.588648728683866,-0.07264237821267991,-0.12915354361011822,-0.019539130649335403,0.0862274154993305,0.028249534884382494,0.02370308453203085,0.163334180799246,0.19143210354757312,0.09949235876811618,-0.00030413004885740017,0.07506427783879376
v,0.8642461687933075,-0.36656261077854263,0.7639818846158866,0.01121770627170283,1.4632634213719207,-0.7965491311784291,0.968137331311158,-0.892383349963169,0.4266550674467713,0.2219250631823677,-0.5151212733925911,-0.6639323084374771,-0.1258224564163954,-0.12419001478225969,0.21721405712044223,-0.4240126373541202,0.30533838787172635,0.3781818041817795,-0.3227455216900424,0.20309862407706947
w,0.48182474979453427,-0.16814313348948465,0.2704458115046479,-0.3667293608279368,0.9774201138570935,-0.6026687039677671,0.06208233424165624,-0.38383281894106624,-0.03342550442433987,-0.07478303305620332,-0.3747847876989074,-0.16011042218002713,0.05816278389397373,-0.27248467135404897,-0.08867840505604978,0.08700524366033796,-0.4168990985045564,0.18747029151097225,0.052566666508454436,-0.15152781861683745
x,5.814620227753494,5.50233130315417,-0.42392187695797207,1.1954497882817967,-0.08467489418207244,0.26017799071121345,0.7824151795275857,0.1380964812631643,-0.21229963439127172,-0.08466710558699321,-0.13384007782488833,0.30170625771662674,0.03213899323263172,0.0892064756810624,0.27379012659571667,-0.26178323134526943,-0.10992638184684157,-0.3263738865704832,-0.020265762981655198,0.05441902299920271
y,0.5568226011039219,-0.31901084573857963,-0.3934618664008823,-1.1606688644537275,0.20823185164248234,-0.8195716010582604,-0.30317213800093545,-0.659183224226575,-1.0060163431676794,-0.8591809146024983,0.4971104387001545,0.322746376326351,-1.2083883122379302,-0.5756786148584602,-0.31175051215770055,-0.14640996241578821,-0.18990819618055538,-0.4627351415294578,0.17719266570607065,0.1408481854424967
z,4.367905918203377,-4.961959310880472,1.03865596589696,3.5167520184144143,0.2431949258202386,-0.4062839938889737,0.3516375324489791,0.4942151013919325,-0.2152436494935226,-0.01041782827273783,0.21187280857831992,0.2932204693716864,0.020718063189620765,-0.050318639075831936,-0.24012340493914272,0.09620263577729377,0.11386132643557222,-0.1032296106315266,0.005991049220002024,0.0366361722550569
