plaintext_letter,dim_0,dim_1,dim_2,dim_3,dim_4,dim_5,dim_6,dim_7,dim_8,dim_9,dim_10,dim_11,dim_12,dim_13,dim_14,dim_15,dim_16,dim_17,dim_18,dim_19
a,1.0586387007142684,-0.7140005830595665,-0.254668352711245,-0.10525034699235372,0.7437590085874121,0.34818267244048867,-0.16899422319194882,0.09382655777811327,-0.32326041249096577,-0.026531165197307822,-0.07325654267495416,0.01787796212752916,-0.6624166068194807,-0.08315730640161471,-0.21124706499729878,-0.1595783845415997,0.20230587978925824,0.06945973898656493,-0.051435397170225786,-0.20019503645441217
b,1.2589537164055344,0.6542653664170542,-0.47410630928468445,-0.060625812678091744,0.9059774232089437,-0.22126849070622734,-0.3257343413856967,-0.3445220452871431,-0.3147630849155502,0.9957336886516115,0.1935544317828251,0.27413189118982934,-0.17028236804029337,0.06261106576103725,-0.009269062340755297,0.1120284933714408,-0.2536084326594525,0.040010559597462386,0.040068367884096096,0.07269187933853001
c,0.7594426405584417,0.5240740907697818,-0.28230467339472987,0.08870736828161421,0.2201434645415665,0.33024476253687207,-0.029852810276394658,0.3573023727095652,0.2419572898047251,-0.08793863027407456,0.006546300519818316,0.29810331719483213,-0.27745033265959507,-0.16470186982984258,-0.05118233566540523,0.28593912009721806,-0.039592560276013745,-0.010694499910334929,0.11211771108094909,-0.21091512942164567
d,0.47222420444624574,0.45854749323697835,-0.13205642669358783,0.02387443789114685,0.09885504965674291,0.24404999601571503,-0.033494694623433914,0.012827075118400354,-0.03545697580720171,0.0016807116991353409,0.03671083191938384,0.10816563485026813,0.4397395312020122,0.12866832887356064,-0.29417103136054473,-0.0218189134061141,0.18560635680776422,0.2474013163720677,-0.04706947366439128,-0.08968465660379538
e,1.1273897985989576,-0.649218827932621,0.7789235190371391,0.3989862822639478,-0.44433969722817174,-0.0415266583639585,0.8013207767014923,-0.3910912991234954,-0.18464601902261532,-0.1743908057233401,0.3068873958587971,0.3661814107795919,-0.048551984370570525,0.24721441813291012,-0.016892638298307124,-0.10285487090012234,0.028312416450681305,-0.20593448992156757,0.2564677326701543,-0.2564411989655209
f,0.6764004351081568,0.3925637923756617,0.3870305467602981,-0.2506484132512754,-0.05153128370714174,-0.16503157730079338,0.7400918454647554,0.6028477115371796,0.21082964522115766,0.21583246304255846,-0.19397813303920608,-0.16980925078654877,-0.2107724396553347,0.49366176985258714,0.325130694334144,-0.10846254539471574,-0.17659541532844775,0.08987415355529187,0.10241489381873072,0.05250517837201303
g,0.5007011836319372,0.5140062071244721,-0.07674254348995356,0.1623708029607366,-0.1471708628761887,0.7998638484968638,-0.12946554370196484,0.1862784434001508,0.4386251526740225,-0.11043740614625228,0.18275736151890143,0.450263392495404,0.10711144638542686,0.1356562169048374,-0.11376179198762923,-0.28382124652927154,0.0818263933968177,0.10569142686109373,0.21672456003302545,0.2754783611497077
h,0.36095942859999336,-0.1686545056118564,0.24776987111279225,-0.19740176455060915,-0.02386729250443534,0.3616041148328556,-0.28358173425547956,0.3243405774367177,-0.6424843862913129,0.017617642233896662,0.7596169636426673,-0.6412133127854666,0.16022803219057716,-0.22381817694852466,0.2808342679276339,0.014726486533938352,0.10995467108390328,0.019394958947821297,0.20869253878529526,-0.03488336826519406
i,0.7829806671548463,-0.5660921468840321,0.1999757461357065,-0.2836013010699589,-0.32956580101041355,1.1245504945292062,0.5963328856132737,-0.09324485815022515,-0.787600027453676,0.03378280228025822,-0.08251304052351992,0.08218983074157922,0.09682227650583147,0.17988406663964931,-0.0004678050070747891,0.15085719772099393,-0.11940686894277375,0.20827119588854695,-0.2615062454608778,0.08777566359315805
j,1.2499628492796158,0.8754375002343906,-0.4882430601999774,0.00557338198979758,0.2888366732691754,-0.1993729127038186,0.40983265251320045,0.4716811271530767,-0.1080096373948108,-0.5821468298618645,-0.15877821911860265,-0.298890404971803,-0.054302569899341596,-0.2176242574824933,-0.09606798434660631,-0.30834350373448444,-0.2581820014772597,-0.06549192181496837,-0.18531974966693554,-0.04247334558060556
k,0.5114034498369328,0.06640644797600107,-0.014408397134825522,0.0038009169955793487,0.3517445267352375,0.33560890543163535,0.13277108288199987,0.5071827434246805,0.31914027559592467,0.3469763729644917,-0.1711841713620487,-0.1945791405881181,0.4718714485952977,-0.09010975903620808,-0.20332965030591713,-0.06139351687195854,-0.05609599229872713,0.07628862174983538,0.10173696347680553,-0.20640548632512334
l,1.091148129543778,0.3496112831265888,-0.3962067004043738,0.2189711335090559,1.2589447447055402,0.1556056440206522,0.06082312628520197,-0.48320454252191786,-0.06339678490094998,0.1384463597873924,0.07830856623832605,-0.06838250973636599,0.3851714346826804,0.1074675320349481,0.1277958493806833,-0.29670389303001304,0.06419162642445478,-0.2986214114880446,-0.0723480333884198,0.016152215751682325
m,0.6093240086952159,0.2157821567480391,0.05816051719543767,-0.09044764858433556,0.17739128214840216,-0.018481551816651384,0.16450377205128866,0.336811035567774,0.19347741039086416,0.24747559046335302,-0.3347038312568613,-0.05467302955005302,0.2512075738126064,-0.19303632039060273,0.011584479800602308,0.26592441035607206,0.04770636497942021,0.044849556590624215,0.09749131053669474,-0.11971056134338177
n,0.3961959670572753,0.05194075902298062,0.0834822478462085,0.0022948895578679936,0.007056141866191032,0.747237809293213,-0.04620841997805244,0.27375662658294614,0.3009602550922709,0.09728082205732537,-0.02105284512333388,-0.4582993735493691,-0.282296504194605,0.2363539695391984,-0.30391011584291394,0.20576469216702425,0.10368305173689651,-0.4100214183609199,0.009615370022739322,0.1945842264131301
o,0.9968049964218839,-0.4706875573188282,0.7391820274375365,0.1428607464118896,0.24978143628354435,-0.18628862909664198,-0.8396340331511905,0.9176968244984894,-0.5764239393530532,-0.3913265295708629,-0.2572282402557627,0.4838763798909174,0.11401176912815167,0.027586525358452248,0.12731793015663412,-0.011452169042744832,-0.05365938884785912,-0.11085188381091621,0.05774908208359869,0.10343966250920372
p,1.013330506666606,0.33377498526041705,0.5159691616449428,-0.5033833636010371,0.39481344558202486,-0.08332760675156896,0.27419283298222563,-0.1089653495271877,0.06717843942760725,0.1925157581440814,-0.5518540143109426,-0.03482529564913179,-0.09664703275048206,-0.05521673268594718,0.34729461614881635,0.024932832598814694,0.47393640800978054,0.07620718244239383,0.013352289048709637,0.07548382700129395
q,2.137642174253543,1.889053478981733,-1.3732935404410744,0.1008151346050055,-1.2232315914990413,-0.29861157842704367,-0.17088879534111073,-0.17765757551925943,-0.23691182911327327,-0.20702445318277066,0.10341580029231577,-0.06104475763583332,-0.08687050071474056,0.03123345320816154,-0.004399989316948564,0.05940106471054724,0.13154711000434802,0.05044978143513493,0.03339637498759909,0.01890725382572874
r,1.2128159820413642,0.08003568001911299,1.2177273225285785,1.4337768825272574,0.04762912986376035,-0.5619695579452261,-0.010538558375061038,-0.01387940331513396,-0.1276505447375287,-0.08102292376545955,-0.04445331114978349,-0.11993563870494234,0.18455883133543732,0.22031399250756536,-0.14253782688179137,0.2233167422120269,0.13756141956463216,-0.036762560196076696,-0.17465796992583654,0.030564581350171524
s,0.6305729439489188,0.5153354248672031,0.240670211346087,-0.32253567300856206,-0.27121143296800787,0.4548857516565067,0.16991394848286984,-0.2905007972830823,-0.006696650448945381,-0.0739535280662679,-0.2094510946366738,0.18037077346747102,0.19474540342642002,-0.35859207065593734,0.14085565617501805,0.24617173544254914,-0.19796980144354293,-0.2816118802786582,0.027718189851089287,0.0007965117037868862
t,0.3431862255204019,0.25363076059242995,0.259261494888086,-0.04835850063899354,-0.005946458244365523,0.2646350346866098,0.07723692690360519,0.3383336431715144,0.6353272095455802,0.0016856810374782198,0.659336802702163,0.37536985050119,-0.03738659302437601,-0.21177060124006863,0.30031400759048044,0.013197346881045043,0.12449520533741787,-0.05652651126657017,-0.3705214152635919,-0.06887910100420891
u,2.418677220789297,-2.502503091737949,-1.3682660402433853,-0.15998329354570143,-0.6414291416781752,-0.3162449513321956,-0.09733176643423437,0.04199521590291956,0.4098910466114918,0.2188986613393172,-0.03379591665485339,-0.05760259041412031,0.14549137096674294,-0.07232663520176971,0.03208036605430068,-0.011337554835012085,-0.021833300541596767,-0.0186294746823705,-0.033945282228888596,0.07348290905906549
v,0.5138812689598403,0.19891149687887472,0.4236014425980116,-0.1942094386111213,-0.20725876450896058,0.23732324252950632,-0.8714952039743172,-0.07392280142190416,0.38146562664689226,0.014907085838369357,0.08411711177622228,-0.2097828399086581,-0.002036438228252515,0.6502969183075095,0.15925832642675555,0.031555137237587946,-0.13999357727241782,0.051469266568569705,-0.10295418160825859,-0.23235399189701397
w,0.679453116515255,0.0008945721988148372,0.9264258118682135,0.9119833108249827,0.06774686227639194,-0.24126174239980894,0.36566150907832046,0.26204813704138147,0.18707982410806845,0.4005927831408518,0.42775482438640305,-0.11527575960316469,-0.18181823642317707,-0.2920227239645774,-0.10395868877316326,0.00801210326348685,-0.08985248614807272,0.16902472399129842,0.010886613119499261,0.14766943482259565
x,0.9505104987129204,-0.03213848019962737,1.1304336778447819,0.8218157208080143,-0.4172321083043626,0.6123405116143789,-0.5244204804238368,-0.6469727543459385,0.2764106136081884,-0.029353763889257985,-0.42890491237109224,-0.2192083655492672,-0.1523575216206514,-0.36562755387735013,0.1439492383621659,-0.20481017482327715,-0.14042100368578447,0.12319332816029918,0.04353149290258551,-0.022380152039464557
y,0.8977602319931356,-0.3617286575462956,-0.16981288003875947,-0.2093857333124046,1.2447085037482577,-0.06626998540688583,0.11438147056221337,-0.4435068468234529,0.370167679386233,-1.000973832968873,0.22220022966536712,-0.11534394462271291,0.0032190697933393688,0.08132514859958649,0.04472746139068792,0.29085263292816843,-0.09700522490920233,0.2164131747813351,0.11579455256589496,0.10926785904346595
z,1.2373726755950538,0.20851252091465441,1.839146979103125,-1.8148227519531772,-0.25787686225287926,-0.47638919238312794,-0.13787428763658852,-0.20347932439518293,0.0923004051035607,0.018198996234604508,0.17689642223509017,-0.009298808177901475,0.0360185950778934,-0.10931842576111672,-0.3136291538499632,-0.0857127560494954,-0.022002057800906916,-0.017005841792585588,-0.03213983157936623,0.040335001849265154
